<?xml version="1.0"?>
<opencv_storage>
<stage8>
  <maxWeakCount>20</maxWeakCount>
  <stageThreshold>-9.3832182884216309e-01</stageThreshold>
  <weakClassifiers>
    <_>
      <internalNodes>
        0 -1 67412 3.4677016735076904e-01</internalNodes>
      <leafValues>
        1.0827067494392395e-01 9.4814813137054443e-01</leafValues></_>
    <_>
      <internalNodes>
        0 -1 6771501 -2.3400855716317892e-03</internalNodes>
      <leafValues>
        -8.0618155002593994e-01 1.5471529960632324e-01</leafValues></_>
    <_>
      <internalNodes>
        0 -1 5349181 -1.9982140511274338e-02</internalNodes>
      <leafValues>
        6.3235318660736084e-01 -1.5975932776927948e-01</leafValues></_>
    <_>
      <internalNodes>
        0 -1 3669004 -6.8230490433052182e-04</internalNodes>
      <leafValues>
        -6.2499481439590454e-01 1.2636961042881012e-01</leafValues></_>
    <_>
      <internalNodes>
        0 -1 2328119 -3.7462837994098663e-02</internalNodes>
      <leafValues>
        7.3924374580383301e-01 -1.2124651670455933e-01</leafValues></_>
    <_>
      <internalNodes>
        0 -1 4540729 5.6340079754590988e-03</internalNodes>
      <leafValues>
        -2.4477584660053253e-01 3.2808983325958252e-01</leafValues></_>
    <_>
      <internalNodes>
        0 -1 5850392 -2.7256075292825699e-02</internalNodes>
      <leafValues>
        -6.3376295566558838e-01 1.5615251660346985e-01</leafValues></_>
    <_>
      <internalNodes>
        0 -1 5152086 -1.1426642595324665e-04</internalNodes>
      <leafValues>
        2.0916134119033813e-01 -3.4730532765388489e-01</leafValues></_>
    <_>
      <internalNodes>
        0 -1 5900757 1.8069821596145630e-01</internalNodes>
      <leafValues>
        -1.0674786567687988e-01 8.5139715671539307e-01</leafValues></_>
    <_>
      <internalNodes>
        0 -1 2032880 4.5763637172058225e-04</internalNodes>
      <leafValues>
        -2.1752013266086578e-01 3.3971104025840759e-01</leafValues></_>
    <_>
      <internalNodes>
        0 -1 5740903 3.5857891198247671e-03</internalNodes>
      <leafValues>
        1.9298718869686127e-01 -4.5634338259696960e-01</leafValues></_>
    <_>
      <internalNodes>
        0 -1 2931163 -1.0481473989784718e-02</internalNodes>
      <leafValues>
        6.0562157630920410e-01 -1.4187718927860260e-01</leafValues></_>
    <_>
      <internalNodes>
        0 -1 594030 4.7361291944980621e-02</internalNodes>
      <leafValues>
        1.1484793573617935e-01 -7.9692935943603516e-01</leafValues></_>
    <_>
      <internalNodes>
        0 -1 4883880 9.7307115793228149e-02</internalNodes>
      <leafValues>
        -1.4802265167236328e-01 6.7107439041137695e-01</leafValues></_>
    <_>
      <internalNodes>
        0 -1 100666 1.6571590304374695e-01</internalNodes>
      <leafValues>
        -1.8632593750953674e-01 5.1048994064331055e-01</leafValues></_>
    <_>
      <internalNodes>
        0 -1 3176518 2.9345366056077182e-04</internalNodes>
      <leafValues>
        1.5412050485610962e-01 -5.3835618495941162e-01</leafValues></_>
    <_>
      <internalNodes>
        0 -1 6028119 -1.2732607137877494e-04</internalNodes>
      <leafValues>
        3.0111518502235413e-01 -2.5982317328453064e-01</leafValues></_>
    <_>
      <internalNodes>
        0 -1 5756541 4.1052023880183697e-03</internalNodes>
      <leafValues>
        -1.9063846766948700e-01 4.3198859691619873e-01</leafValues></_>
    <_>
      <internalNodes>
        0 -1 1681409 -3.8424602826125920e-04</internalNodes>
      <leafValues>
        4.4230377674102783e-01 -1.6452077031135559e-01</leafValues></_>
    <_>
      <internalNodes>
        0 -1 384238 9.8626166582107544e-02</internalNodes>
      <leafValues>
        1.3519911468029022e-01 -6.1536735296249390e-01</leafValues></_></weakClassifiers></stage8>
</opencv_storage>
