<?xml version="1.0"?>
<opencv_storage>
<stage5>
  <maxWeakCount>18</maxWeakCount>
  <stageThreshold>-1.0879621505737305e+00</stageThreshold>
  <weakClassifiers>
    <_>
      <internalNodes>
        0 -1 333135 1.0595712661743164e+00</internalNodes>
      <leafValues>
        5.2808046340942383e-02 8.2800984382629395e-01</leafValues></_>
    <_>
      <internalNodes>
        0 -1 11022 -8.5227683186531067e-02</internalNodes>
      <leafValues>
        7.9701077938079834e-01 -6.9011628627777100e-02</leafValues></_>
    <_>
      <internalNodes>
        0 -1 630332 -2.0454065874218941e-02</internalNodes>
      <leafValues>
        6.4325243234634399e-01 -1.5404561161994934e-01</leafValues></_>
    <_>
      <internalNodes>
        0 -1 4218251 3.9375443011522293e-03</internalNodes>
      <leafValues>
        -1.5064364671707153e-01 7.3961317539215088e-01</leafValues></_>
    <_>
      <internalNodes>
        0 -1 2478165 -6.0111708007752895e-03</internalNodes>
      <leafValues>
        5.7833462953567505e-01 -1.7709086835384369e-01</leafValues></_>
    <_>
      <internalNodes>
        0 -1 7566491 6.2531162984669209e-04</internalNodes>
      <leafValues>
        -1.5561512112617493e-01 6.0494697093963623e-01</leafValues></_>
    <_>
      <internalNodes>
        0 -1 6213049 7.2354334406554699e-04</internalNodes>
      <leafValues>
        1.2077420949935913e-01 -9.1773581504821777e-01</leafValues></_>
    <_>
      <internalNodes>
        0 -1 4903370 -3.9692749269306660e-03</internalNodes>
      <leafValues>
        3.6152303218841553e-01 -2.6549199223518372e-01</leafValues></_>
    <_>
      <internalNodes>
        0 -1 3634157 1.3390157371759415e-02</internalNodes>
      <leafValues>
        -1.8775622546672821e-01 5.3036463260650635e-01</leafValues></_>
    <_>
      <internalNodes>
        0 -1 5073842 -3.1708460301160812e-04</internalNodes>
      <leafValues>
        6.6333442926406860e-01 -1.1152464151382446e-01</leafValues></_>
    <_>
      <internalNodes>
        0 -1 2905697 -1.5589941293001175e-02</internalNodes>
      <leafValues>
        -6.2323719263076782e-01 1.6836448013782501e-01</leafValues></_>
    <_>
      <internalNodes>
        0 -1 5684081 -1.6819455777294934e-04</internalNodes>
      <leafValues>
        -6.7863565683364868e-01 1.4195860922336578e-01</leafValues></_>
    <_>
      <internalNodes>
        0 -1 1069909 1.1557176709175110e-02</internalNodes>
      <leafValues>
        -1.9321003556251526e-01 5.7083410024642944e-01</leafValues></_>
    <_>
      <internalNodes>
        0 -1 2735804 8.8975741527974606e-04</internalNodes>
      <leafValues>
        1.3809847831726074e-01 -7.0979094505310059e-01</leafValues></_>
    <_>
      <internalNodes>
        0 -1 147054 5.3494179155677557e-04</internalNodes>
      <leafValues>
        -3.0103266239166260e-01 3.1885752081871033e-01</leafValues></_>
    <_>
      <internalNodes>
        0 -1 4301284 -2.7562077157199383e-03</internalNodes>
      <leafValues>
        -8.0266147851943970e-01 1.5368805825710297e-01</leafValues></_>
    <_>
      <internalNodes>
        0 -1 3962208 -2.9699392616748810e-03</internalNodes>
      <leafValues>
        3.2379946112632751e-01 -3.0773580074310303e-01</leafValues></_>
    <_>
      <internalNodes>
        0 -1 5001303 4.0729762986302376e-03</internalNodes>
      <leafValues>
        1.9137112796306610e-01 -5.9673631191253662e-01</leafValues></_></weakClassifiers></stage5>
</opencv_storage>
