<?xml version="1.0"?>
<opencv_storage>
<stage18>
  <maxWeakCount>24</maxWeakCount>
  <stageThreshold>-1.0619596242904663e+00</stageThreshold>
  <weakClassifiers>
    <_>
      <internalNodes>
        0 -1 5038229 5.9885132941417396e-05</internalNodes>
      <leafValues>
        4.3725019693374634e-01 -4.2120343446731567e-01</leafValues></_>
    <_>
      <internalNodes>
        0 -1 4915575 -2.0044771954417229e-03</internalNodes>
      <leafValues>
        1.8181394040584564e-01 -5.5295246839523315e-01</leafValues></_>
    <_>
      <internalNodes>
        0 -1 6773070 -2.8564436361193657e-02</internalNodes>
      <leafValues>
        5.1546472311019897e-01 -1.6971702873706818e-01</leafValues></_>
    <_>
      <internalNodes>
        0 -1 7205622 9.0229762718081474e-03</internalNodes>
      <leafValues>
        -1.8231472373008728e-01 4.9766609072685242e-01</leafValues></_>
    <_>
      <internalNodes>
        0 -1 4728913 -3.5303264856338501e-02</internalNodes>
      <leafValues>
        -7.2487276792526245e-01 1.2195745110511780e-01</leafValues></_>
    <_>
      <internalNodes>
        0 -1 3283858 -9.0151350013911724e-04</internalNodes>
      <leafValues>
        -8.0205285549163818e-01 1.0496873408555984e-01</leafValues></_>
    <_>
      <internalNodes>
        0 -1 122961 -2.8562705963850021e-02</internalNodes>
      <leafValues>
        -4.9997669458389282e-01 1.7688605189323425e-01</leafValues></_>
    <_>
      <internalNodes>
        0 -1 5682737 1.4782155631110072e-03</internalNodes>
      <leafValues>
        8.6274050176143646e-02 -8.6202877759933472e-01</leafValues></_>
    <_>
      <internalNodes>
        0 -1 4475134 3.8283097092062235e-04</internalNodes>
      <leafValues>
        2.2477383911609650e-01 -3.7828952074050903e-01</leafValues></_>
    <_>
      <internalNodes>
        0 -1 3414635 5.6249019689857960e-04</internalNodes>
      <leafValues>
        2.1657875180244446e-01 -3.9443448185920715e-01</leafValues></_>
    <_>
      <internalNodes>
        0 -1 34949 9.4650858640670776e-01</internalNodes>
      <leafValues>
        -1.5332949161529541e-01 6.6376316547393799e-01</leafValues></_>
    <_>
      <internalNodes>
        0 -1 7681425 -6.0449488955782726e-05</internalNodes>
      <leafValues>
        4.8070135712623596e-01 -1.8926620483398438e-01</leafValues></_>
    <_>
      <internalNodes>
        0 -1 4116402 1.8301565432921052e-04</internalNodes>
      <leafValues>
        -1.4215476810932159e-01 5.8201950788497925e-01</leafValues></_>
    <_>
      <internalNodes>
        0 -1 6140880 1.4182987797539681e-04</internalNodes>
      <leafValues>
        2.6329806447029114e-01 -3.1564840674400330e-01</leafValues></_>
    <_>
      <internalNodes>
        0 -1 4601757 -1.6938414424657822e-02</internalNodes>
      <leafValues>
        8.3394050598144531e-01 -1.0723149776458740e-01</leafValues></_>
    <_>
      <internalNodes>
        0 -1 4427464 -2.8202031899127178e-05</internalNodes>
      <leafValues>
        -2.9276308417320251e-01 2.9418125748634338e-01</leafValues></_>
    <_>
      <internalNodes>
        0 -1 3111114 -5.8557023294270039e-04</internalNodes>
      <leafValues>
        3.6770567297935486e-01 -2.4630694091320038e-01</leafValues></_>
    <_>
      <internalNodes>
        0 -1 4186108 -1.6719670966267586e-03</internalNodes>
      <leafValues>
        -7.0473068952560425e-01 1.4712807536125183e-01</leafValues></_>
    <_>
      <internalNodes>
        0 -1 8946 1.4177401550114155e-02</internalNodes>
      <leafValues>
        -1.9780752062797546e-01 5.0682812929153442e-01</leafValues></_>
    <_>
      <internalNodes>
        0 -1 1908636 1.7609676346182823e-02</internalNodes>
      <leafValues>
        -2.2772833704948425e-01 4.3096426129341125e-01</leafValues></_>
    <_>
      <internalNodes>
        0 -1 7058488 -1.6782493912614882e-04</internalNodes>
      <leafValues>
        -4.7357240319252014e-01 1.9047012925148010e-01</leafValues></_>
    <_>
      <internalNodes>
        0 -1 2886280 -9.6689201891422272e-03</internalNodes>
      <leafValues>
        7.9615759849548340e-01 -1.2477753311395645e-01</leafValues></_>
    <_>
      <internalNodes>
        0 -1 5166522 -5.4826890846015885e-05</internalNodes>
      <leafValues>
        -6.5675455331802368e-01 1.6673161089420319e-01</leafValues></_>
    <_>
      <internalNodes>
        0 -1 6242269 4.4713774695992470e-03</internalNodes>
      <leafValues>
        -1.9619394838809967e-01 5.6463861465454102e-01</leafValues></_></weakClassifiers></stage18>
</opencv_storage>
