<?xml version="1.0"?>
<opencv_storage>
<stage1>
  <maxWeakCount>12</maxWeakCount>
  <stageThreshold>-1.2137380838394165e+00</stageThreshold>
  <weakClassifiers>
    <_>
      <internalNodes>
        0 -1 3104753 1.4706693589687347e-01</internalNodes>
      <leafValues>
        -2.7319586277008057e-01 7.4271845817565918e-01</leafValues></_>
    <_>
      <internalNodes>
        0 -1 173838 9.6140050888061523e-01</internalNodes>
      <leafValues>
        -1.4045096933841705e-01 8.5232102870941162e-01</leafValues></_>
    <_>
      <internalNodes>
        0 -1 6911492 -6.6260178573429585e-04</internalNodes>
      <leafValues>
        -8.5140538215637207e-01 2.1728032827377319e-01</leafValues></_>
    <_>
      <internalNodes>
        0 -1 3289631 5.9341907035559416e-04</internalNodes>
      <leafValues>
        -6.1898988485336304e-01 2.1425867080688477e-01</leafValues></_>
    <_>
      <internalNodes>
        0 -1 6596440 7.6093040406703949e-02</internalNodes>
      <leafValues>
        -2.8279128670692444e-01 6.4763766527175903e-01</leafValues></_>
    <_>
      <internalNodes>
        0 -1 4993374 -4.9859797582030296e-04</internalNodes>
      <leafValues>
        -7.1306610107421875e-01 2.7401557564735413e-01</leafValues></_>
    <_>
      <internalNodes>
        0 -1 5638527 -1.3105841353535652e-03</internalNodes>
      <leafValues>
        -7.2446048259735107e-01 1.4111547172069550e-01</leafValues></_>
    <_>
      <internalNodes>
        0 -1 6535096 -1.5513211488723755e-01</internalNodes>
      <leafValues>
        -6.1724770069122314e-01 1.7622166872024536e-01</leafValues></_>
    <_>
      <internalNodes>
        0 -1 4180502 -2.9341288609430194e-04</internalNodes>
      <leafValues>
        -8.9608329534530640e-01 7.6225094497203827e-02</leafValues></_>
    <_>
      <internalNodes>
        0 -1 6583479 -5.7491686195135117e-02</internalNodes>
      <leafValues>
        -8.1807518005371094e-01 1.2411383539438248e-01</leafValues></_>
    <_>
      <internalNodes>
        0 -1 6093402 6.7494250833988190e-03</internalNodes>
      <leafValues>
        1.8907609581947327e-01 -6.0671949386596680e-01</leafValues></_>
    <_>
      <internalNodes>
        0 -1 7165168 -9.3254848616197705e-04</internalNodes>
      <leafValues>
        -9.0863770246505737e-01 1.2616069614887238e-01</leafValues></_></weakClassifiers></stage1>
</opencv_storage>
