<?xml version="1.0"?>
<opencv_storage>
<stage19>
  <maxWeakCount>20</maxWeakCount>
  <stageThreshold>-9.1159534454345703e-01</stageThreshold>
  <weakClassifiers>
    <_>
      <internalNodes>
        0 -1 878015 3.2085329294204712e-02</internalNodes>
      <leafValues>
        4.3877550959587097e-01 -2.7358490228652954e-01</leafValues></_>
    <_>
      <internalNodes>
        0 -1 4521972 -3.0596824362874031e-03</internalNodes>
      <leafValues>
        -7.9835647344589233e-01 1.4018027484416962e-01</leafValues></_>
    <_>
      <internalNodes>
        0 -1 5030345 -5.6690798373892903e-04</internalNodes>
      <leafValues>
        5.2676707506179810e-01 -2.2117926180362701e-01</leafValues></_>
    <_>
      <internalNodes>
        0 -1 5114637 -5.1388293504714966e-03</internalNodes>
      <leafValues>
        2.7810025215148926e-01 -3.6259344220161438e-01</leafValues></_>
    <_>
      <internalNodes>
        0 -1 6703462 -2.1169499959796667e-03</internalNodes>
      <leafValues>
        -6.9922614097595215e-01 1.2052253633737564e-01</leafValues></_>
    <_>
      <internalNodes>
        0 -1 388312 -1.7828510608524084e-03</internalNodes>
      <leafValues>
        7.7175205945968628e-01 -1.5061014890670776e-01</leafValues></_>
    <_>
      <internalNodes>
        0 -1 1965652 1.2693072203546762e-03</internalNodes>
      <leafValues>
        -1.7400527000427246e-01 4.8355007171630859e-01</leafValues></_>
    <_>
      <internalNodes>
        0 -1 6152733 1.1944721336476505e-05</internalNodes>
      <leafValues>
        3.2022348046302795e-01 -2.8934925794601440e-01</leafValues></_>
    <_>
      <internalNodes>
        0 -1 3797782 -1.6349954530596733e-03</internalNodes>
      <leafValues>
        5.0142604112625122e-01 -2.0268745720386505e-01</leafValues></_>
    <_>
      <internalNodes>
        0 -1 333135 9.0876686573028564e-01</internalNodes>
      <leafValues>
        -1.9181890785694122e-01 5.5851453542709351e-01</leafValues></_>
    <_>
      <internalNodes>
        0 -1 7098439 -2.2115068510174751e-02</internalNodes>
      <leafValues>
        5.5902278423309326e-01 -1.9235216081142426e-01</leafValues></_>
    <_>
      <internalNodes>
        0 -1 5545094 -1.4728072565048933e-03</internalNodes>
      <leafValues>
        -3.7300130724906921e-01 3.2083326578140259e-01</leafValues></_>
    <_>
      <internalNodes>
        0 -1 3017440 -1.3871365808881819e-04</internalNodes>
      <leafValues>
        2.7381923794746399e-01 -4.1701170802116394e-01</leafValues></_>
    <_>
      <internalNodes>
        0 -1 4557807 1.2273625470697880e-03</internalNodes>
      <leafValues>
        -3.4740337729454041e-01 3.1778743863105774e-01</leafValues></_>
    <_>
      <internalNodes>
        0 -1 1611468 1.0078538616653532e-04</internalNodes>
      <leafValues>
        -2.5500443577766418e-01 4.2745184898376465e-01</leafValues></_>
    <_>
      <internalNodes>
        0 -1 7556488 -1.0496415197849274e-02</internalNodes>
      <leafValues>
        -3.0238449573516846e-01 3.4141507744789124e-01</leafValues></_>
    <_>
      <internalNodes>
        0 -1 6539122 -2.0158564439043403e-05</internalNodes>
      <leafValues>
        -3.9817368984222412e-01 2.4091567099094391e-01</leafValues></_>
    <_>
      <internalNodes>
        0 -1 4347535 -6.5248750615864992e-05</internalNodes>
      <leafValues>
        3.9073723554611206e-01 -2.9336723685264587e-01</leafValues></_>
    <_>
      <internalNodes>
        0 -1 6130642 1.8717806786298752e-02</internalNodes>
      <leafValues>
        -1.4404141902923584e-01 7.8287649154663086e-01</leafValues></_>
    <_>
      <internalNodes>
        0 -1 5610388 6.0405638068914413e-03</internalNodes>
      <leafValues>
        -3.1764304637908936e-01 3.9563012123107910e-01</leafValues></_></weakClassifiers></stage19>
</opencv_storage>
