<?xml version="1.0"?>
<opencv_storage>
<stage12>
  <maxWeakCount>23</maxWeakCount>
  <stageThreshold>-9.2843550443649292e-01</stageThreshold>
  <weakClassifiers>
    <_>
      <internalNodes>
        0 -1 7594906 -2.3018657229840755e-03</internalNodes>
      <leafValues>
        -7.4193549156188965e-01 3.8048091530799866e-01</leafValues></_>
    <_>
      <internalNodes>
        0 -1 2431875 2.3201410658657551e-03</internalNodes>
      <leafValues>
        -6.0269713401794434e-01 1.5615238249301910e-01</leafValues></_>
    <_>
      <internalNodes>
        0 -1 100524 2.7230978012084961e-01</internalNodes>
      <leafValues>
        -5.1460400223731995e-02 9.5561623573303223e-01</leafValues></_>
    <_>
      <internalNodes>
        0 -1 3990756 5.2104098722338676e-04</internalNodes>
      <leafValues>
        -2.6745784282684326e-01 3.7078040838241577e-01</leafValues></_>
    <_>
      <internalNodes>
        0 -1 6628593 8.7184796575456858e-04</internalNodes>
      <leafValues>
        -1.7073962092399597e-01 4.8717913031578064e-01</leafValues></_>
    <_>
      <internalNodes>
        0 -1 1534179 2.1462863311171532e-02</internalNodes>
      <leafValues>
        1.4456427097320557e-01 -7.1824818849563599e-01</leafValues></_>
    <_>
      <internalNodes>
        0 -1 3436332 3.2518871012143791e-04</internalNodes>
      <leafValues>
        3.4123805165290833e-01 -2.2886899113655090e-01</leafValues></_>
    <_>
      <internalNodes>
        0 -1 5733141 3.6113227251917124e-03</internalNodes>
      <leafValues>
        1.7541094124317169e-01 -5.3867334127426147e-01</leafValues></_>
    <_>
      <internalNodes>
        0 -1 3949065 -3.6305870162323117e-04</internalNodes>
      <leafValues>
        -7.2359049320220947e-01 6.5161295235157013e-02</leafValues></_>
    <_>
      <internalNodes>
        0 -1 4927100 -5.3516654297709465e-03</internalNodes>
      <leafValues>
        6.5238749980926514e-01 -1.0255624353885651e-01</leafValues></_>
    <_>
      <internalNodes>
        0 -1 84935 -2.5797736644744873e-01</internalNodes>
      <leafValues>
        9.2831897735595703e-01 -7.2407886385917664e-02</leafValues></_>
    <_>
      <internalNodes>
        0 -1 6336386 5.6459829211235046e-03</internalNodes>
      <leafValues>
        -2.2988706827163696e-01 3.9389717578887939e-01</leafValues></_>
    <_>
      <internalNodes>
        0 -1 5556856 -1.2343752314336598e-04</internalNodes>
      <leafValues>
        1.4016896486282349e-01 -5.5561846494674683e-01</leafValues></_>
    <_>
      <internalNodes>
        0 -1 4974071 -5.9672631323337555e-04</internalNodes>
      <leafValues>
        5.8191132545471191e-01 -1.3194070756435394e-01</leafValues></_>
    <_>
      <internalNodes>
        0 -1 5228732 1.8749751616269350e-03</internalNodes>
      <leafValues>
        1.1256842315196991e-01 -7.1645396947860718e-01</leafValues></_>
    <_>
      <internalNodes>
        0 -1 326743 -2.2084251046180725e-01</internalNodes>
      <leafValues>
        -5.3017407655715942e-01 1.2731565535068512e-01</leafValues></_>
    <_>
      <internalNodes>
        0 -1 775944 1.4281296171247959e-03</internalNodes>
      <leafValues>
        -1.7866981029510498e-01 4.2306569218635559e-01</leafValues></_>
    <_>
      <internalNodes>
        0 -1 3686301 8.1398227484896779e-04</internalNodes>
      <leafValues>
        1.4517891407012939e-01 -4.9278211593627930e-01</leafValues></_>
    <_>
      <internalNodes>
        0 -1 4606 5.2989912033081055e-01</internalNodes>
      <leafValues>
        -1.3672736287117004e-01 5.8833885192871094e-01</leafValues></_>
    <_>
      <internalNodes>
        0 -1 3670246 -9.6359914168715477e-03</internalNodes>
      <leafValues>
        5.0562930107116699e-01 -1.4519599080085754e-01</leafValues></_>
    <_>
      <internalNodes>
        0 -1 6642865 6.7755390773527324e-05</internalNodes>
      <leafValues>
        2.0408679544925690e-01 -4.4507968425750732e-01</leafValues></_>
    <_>
      <internalNodes>
        0 -1 7735178 -1.9994426111225039e-05</internalNodes>
      <leafValues>
        3.7970796227455139e-01 -2.1987867355346680e-01</leafValues></_>
    <_>
      <internalNodes>
        0 -1 3967545 -1.6025011427700520e-04</internalNodes>
      <leafValues>
        3.8951498270034790e-01 -2.1315473318099976e-01</leafValues></_></weakClassifiers></stage12>
</opencv_storage>
