<?xml version="1.0"?>
<opencv_storage>
<stage16>
  <maxWeakCount>23</maxWeakCount>
  <stageThreshold>-1.2399049997329712e+00</stageThreshold>
  <weakClassifiers>
    <_>
      <internalNodes>
        0 -1 2371672 4.8879936337471008e-02</internalNodes>
      <leafValues>
        4.7486034035682678e-01 -2.0912547409534454e-01</leafValues></_>
    <_>
      <internalNodes>
        0 -1 5643753 4.3095014989376068e-02</internalNodes>
      <leafValues>
        -9.8525948822498322e-02 7.9338932037353516e-01</leafValues></_>
    <_>
      <internalNodes>
        0 -1 5546878 2.6184476446360350e-03</internalNodes>
      <leafValues>
        3.5058844089508057e-01 -2.7458870410919189e-01</leafValues></_>
    <_>
      <internalNodes>
        0 -1 3675182 3.2457172870635986e-02</internalNodes>
      <leafValues>
        -6.9279205799102783e-01 1.9156128168106079e-01</leafValues></_>
    <_>
      <internalNodes>
        0 -1 5345190 2.5447050575166941e-03</internalNodes>
      <leafValues>
        2.4715335667133331e-01 -3.5707634687423706e-01</leafValues></_>
    <_>
      <internalNodes>
        0 -1 5436876 7.6280822977423668e-03</internalNodes>
      <leafValues>
        -1.9787383079528809e-01 6.3723647594451904e-01</leafValues></_>
    <_>
      <internalNodes>
        0 -1 4616346 4.8106256872415543e-03</internalNodes>
      <leafValues>
        1.7925631999969482e-01 -6.4699763059616089e-01</leafValues></_>
    <_>
      <internalNodes>
        0 -1 1661578 1.8514031544327736e-03</internalNodes>
      <leafValues>
        -2.1859824657440186e-01 4.8623773455619812e-01</leafValues></_>
    <_>
      <internalNodes>
        0 -1 2036797 -1.9519320921972394e-03</internalNodes>
      <leafValues>
        3.6383125185966492e-01 -2.4480147659778595e-01</leafValues></_>
    <_>
      <internalNodes>
        0 -1 1157897 2.0903599262237549e-01</internalNodes>
      <leafValues>
        -1.2497849017381668e-01 8.6082571744918823e-01</leafValues></_>
    <_>
      <internalNodes>
        0 -1 3906339 6.4831981435418129e-03</internalNodes>
      <leafValues>
        3.4664109349250793e-01 -2.7025678753852844e-01</leafValues></_>
    <_>
      <internalNodes>
        0 -1 3928598 7.5799371115863323e-03</internalNodes>
      <leafValues>
        2.0227907598018646e-01 -5.7300782203674316e-01</leafValues></_>
    <_>
      <internalNodes>
        0 -1 3333369 -4.6517525333911180e-04</internalNodes>
      <leafValues>
        3.8165864348411560e-01 -2.7365314960479736e-01</leafValues></_>
    <_>
      <internalNodes>
        0 -1 2870358 1.1929743050131947e-04</internalNodes>
      <leafValues>
        2.5609993934631348e-01 -3.4567302465438843e-01</leafValues></_>
    <_>
      <internalNodes>
        0 -1 5765585 -1.5765090211061761e-05</internalNodes>
      <leafValues>
        -3.3627912402153015e-01 2.4412515759468079e-01</leafValues></_>
    <_>
      <internalNodes>
        0 -1 2579187 -5.2398759871721268e-03</internalNodes>
      <leafValues>
        7.1706169843673706e-01 -1.4482499659061432e-01</leafValues></_>
    <_>
      <internalNodes>
        0 -1 6860545 6.5659231040626764e-05</internalNodes>
      <leafValues>
        1.6706740856170654e-01 -6.5516662597656250e-01</leafValues></_>
    <_>
      <internalNodes>
        0 -1 1100844 3.1550661660730839e-03</internalNodes>
      <leafValues>
        -1.9708853960037231e-01 4.9398249387741089e-01</leafValues></_>
    <_>
      <internalNodes>
        0 -1 4110781 -5.4901705880183727e-05</internalNodes>
      <leafValues>
        -3.7522348761558533e-01 2.7451848983764648e-01</leafValues></_>
    <_>
      <internalNodes>
        0 -1 4948004 -4.9365754239261150e-03</internalNodes>
      <leafValues>
        7.1057111024856567e-01 -1.3497345149517059e-01</leafValues></_>
    <_>
      <internalNodes>
        0 -1 6220961 -1.5918919234536588e-04</internalNodes>
      <leafValues>
        -7.1199166774749756e-01 1.4009325206279755e-01</leafValues></_>
    <_>
      <internalNodes>
        0 -1 6069414 -1.9090175628662109e-03</internalNodes>
      <leafValues>
        5.3302806615829468e-01 -1.7150865495204926e-01</leafValues></_>
    <_>
      <internalNodes>
        0 -1 1452797 -5.2891648374497890e-04</internalNodes>
      <leafValues>
        -5.1723980903625488e-01 1.7890046536922455e-01</leafValues></_></weakClassifiers></stage16>
</opencv_storage>
