<?xml version="1.0"?>
<opencv_storage>
<stage13>
  <maxWeakCount>15</maxWeakCount>
  <stageThreshold>-6.9955635070800781e-01</stageThreshold>
  <weakClassifiers>
    <_>
      <internalNodes>
        0 -1 6337949 2.3853916674852371e-02</internalNodes>
      <leafValues>
        4.1421946883201599e-01 -4.4444444775581360e-01</leafValues></_>
    <_>
      <internalNodes>
        0 -1 4670268 -6.7381719127297401e-03</internalNodes>
      <leafValues>
        2.0962478220462799e-01 -5.2233803272247314e-01</leafValues></_>
    <_>
      <internalNodes>
        0 -1 1091102 -4.0288949385285378e-03</internalNodes>
      <leafValues>
        4.8301583528518677e-01 -2.7364560961723328e-01</leafValues></_>
    <_>
      <internalNodes>
        0 -1 499991 8.3948695659637451e-01</internalNodes>
      <leafValues>
        -1.5223333239555359e-01 6.0281211137771606e-01</leafValues></_>
    <_>
      <internalNodes>
        0 -1 6888032 3.9076291024684906e-02</internalNodes>
      <leafValues>
        -1.5732133388519287e-01 6.2593686580657959e-01</leafValues></_>
    <_>
      <internalNodes>
        0 -1 5498808 2.1322170505300164e-04</internalNodes>
      <leafValues>
        -1.4967308938503265e-01 6.9618892669677734e-01</leafValues></_>
    <_>
      <internalNodes>
        0 -1 5333729 -7.1265618316829205e-04</internalNodes>
      <leafValues>
        -5.3029268980026245e-01 2.0702748000621796e-01</leafValues></_>
    <_>
      <internalNodes>
        0 -1 4054490 -1.9055134616792202e-03</internalNodes>
      <leafValues>
        -8.6810815334320068e-01 7.0602297782897949e-02</leafValues></_>
    <_>
      <internalNodes>
        0 -1 541442 1.4706068905070424e-03</internalNodes>
      <leafValues>
        -1.9518509507179260e-01 4.7609058022499084e-01</leafValues></_>
    <_>
      <internalNodes>
        0 -1 6043610 -6.9269546656869352e-05</internalNodes>
      <leafValues>
        2.4038290977478027e-01 -4.0594261884689331e-01</leafValues></_>
    <_>
      <internalNodes>
        0 -1 5453392 -1.3107335194945335e-02</internalNodes>
      <leafValues>
        5.1590794324874878e-01 -2.5037479400634766e-01</leafValues></_>
    <_>
      <internalNodes>
        0 -1 6228049 -4.9125724217446987e-06</internalNodes>
      <leafValues>
        4.1614025831222534e-01 -3.1033155322074890e-01</leafValues></_>
    <_>
      <internalNodes>
        0 -1 5287161 2.7069840580224991e-02</internalNodes>
      <leafValues>
        -1.3774982094764709e-01 8.2585507631301880e-01</leafValues></_>
    <_>
      <internalNodes>
        0 -1 6378062 5.7650450617074966e-04</internalNodes>
      <leafValues>
        -2.5811219215393066e-01 3.6087569594383240e-01</leafValues></_>
    <_>
      <internalNodes>
        0 -1 6237335 4.7257894038921222e-05</internalNodes>
      <leafValues>
        1.9441515207290649e-01 -4.7387164831161499e-01</leafValues></_></weakClassifiers></stage13>
</opencv_storage>
