<?xml version="1.0"?>
<opencv_storage>
<stage9>
  <maxWeakCount>23</maxWeakCount>
  <stageThreshold>-1.0050104856491089e+00</stageThreshold>
  <weakClassifiers>
    <_>
      <internalNodes>
        0 -1 7535454 4.8841536045074463e-02</internalNodes>
      <leafValues>
        3.5817804932594299e-01 -7.8807944059371948e-01</leafValues></_>
    <_>
      <internalNodes>
        0 -1 5193551 9.1506950557231903e-03</internalNodes>
      <leafValues>
        -8.3025410771369934e-02 7.8463894128799438e-01</leafValues></_>
    <_>
      <internalNodes>
        0 -1 6788489 -1.7442829906940460e-02</internalNodes>
      <leafValues>
        4.6517536044120789e-01 -1.8660545349121094e-01</leafValues></_>
    <_>
      <internalNodes>
        0 -1 334486 -2.9414135217666626e-01</internalNodes>
      <leafValues>
        -7.5549209117889404e-01 1.5372246503829956e-01</leafValues></_>
    <_>
      <internalNodes>
        0 -1 6208769 2.7382851112633944e-03</internalNodes>
      <leafValues>
        4.9299355596303940e-02 -8.2558023929595947e-01</leafValues></_>
    <_>
      <internalNodes>
        0 -1 634976 -4.6565191587433219e-04</internalNodes>
      <leafValues>
        -5.1706027984619141e-01 1.4317256212234497e-01</leafValues></_>
    <_>
      <internalNodes>
        0 -1 5732943 1.3103497913107276e-03</internalNodes>
      <leafValues>
        1.0242087393999100e-01 -8.2062840461730957e-01</leafValues></_>
    <_>
      <internalNodes>
        0 -1 4243030 -5.3060945356264710e-04</internalNodes>
      <leafValues>
        5.4087549448013306e-01 -2.1747927367687225e-01</leafValues></_>
    <_>
      <internalNodes>
        0 -1 5380198 5.1379964133957401e-05</internalNodes>
      <leafValues>
        2.4574327468872070e-01 -3.8284513354301453e-01</leafValues></_>
    <_>
      <internalNodes>
        0 -1 5016442 -3.9917625486850739e-02</internalNodes>
      <leafValues>
        7.8548645973205566e-01 -1.3608103990554810e-01</leafValues></_>
    <_>
      <internalNodes>
        0 -1 5035446 -1.0576771572232246e-02</internalNodes>
      <leafValues>
        2.2606271505355835e-01 -4.2336136102676392e-01</leafValues></_>
    <_>
      <internalNodes>
        0 -1 2225 5.1630035042762756e-02</internalNodes>
      <leafValues>
        1.3861477375030518e-01 -7.5447344779968262e-01</leafValues></_>
    <_>
      <internalNodes>
        0 -1 67421 -3.1037902832031250e-01</internalNodes>
      <leafValues>
        9.5586436986923218e-01 -1.0151372104883194e-01</leafValues></_>
    <_>
      <internalNodes>
        0 -1 6737400 4.1425088420510292e-03</internalNodes>
      <leafValues>
        -1.3639129698276520e-01 5.2471780776977539e-01</leafValues></_>
    <_>
      <internalNodes>
        0 -1 7356090 1.9185312557965517e-03</internalNodes>
      <leafValues>
        -2.2621037065982819e-01 4.4415420293807983e-01</leafValues></_>
    <_>
      <internalNodes>
        0 -1 4840360 6.8248482421040535e-04</internalNodes>
      <leafValues>
        -7.5959794223308563e-02 9.1059863567352295e-01</leafValues></_>
    <_>
      <internalNodes>
        0 -1 5130075 -3.1530697015114129e-04</internalNodes>
      <leafValues>
        3.3761411905288696e-01 -2.3616108298301697e-01</leafValues></_>
    <_>
      <internalNodes>
        0 -1 1969170 -1.4663769397884607e-03</internalNodes>
      <leafValues>
        -8.3410555124282837e-01 1.2065078318119049e-01</leafValues></_>
    <_>
      <internalNodes>
        0 -1 6705423 -1.1197803542017937e-03</internalNodes>
      <leafValues>
        -5.4276967048645020e-01 1.0984680056571960e-01</leafValues></_>
    <_>
      <internalNodes>
        0 -1 3475420 -1.2325422721914947e-04</internalNodes>
      <leafValues>
        3.8049590587615967e-01 -2.1283796429634094e-01</leafValues></_>
    <_>
      <internalNodes>
        0 -1 3081699 3.9793699979782104e-02</internalNodes>
      <leafValues>
        -9.7834832966327667e-02 8.4508550167083740e-01</leafValues></_>
    <_>
      <internalNodes>
        0 -1 173838 1.0799028873443604e+00</internalNodes>
      <leafValues>
        -1.1227685213088989e-01 6.0496556758880615e-01</leafValues></_>
    <_>
      <internalNodes>
        0 -1 7015163 -1.8794856965541840e-02</internalNodes>
      <leafValues>
        1.8064944446086884e-01 -4.7127935290336609e-01</leafValues></_></weakClassifiers></stage9>
</opencv_storage>
