<?xml version="1.0"?>
<opencv_storage>
<stage8>
  <maxWeakCount>22</maxWeakCount>
  <stageThreshold>-1.2435531616210938e+00</stageThreshold>
  <weakClassifiers>
    <_>
      <internalNodes>
        0 -1 5904211 -1.4583187177777290e-02</internalNodes>
      <leafValues>
        -3.5873016715049744e-01 3.9922177791595459e-01</leafValues></_>
    <_>
      <internalNodes>
        0 -1 3121935 5.2099060267210007e-02</internalNodes>
      <leafValues>
        -1.5581807494163513e-01 5.4405093193054199e-01</leafValues></_>
    <_>
      <internalNodes>
        0 -1 6307745 -2.4581572506576777e-04</internalNodes>
      <leafValues>
        4.3908694386482239e-01 -2.2773227095603943e-01</leafValues></_>
    <_>
      <internalNodes>
        0 -1 6539079 -9.0106113930232823e-05</internalNodes>
      <leafValues>
        -4.8934864997863770e-01 1.7805327475070953e-01</leafValues></_>
    <_>
      <internalNodes>
        0 -1 4060369 -3.3779270015656948e-03</internalNodes>
      <leafValues>
        -5.2398121356964111e-01 1.9880476593971252e-01</leafValues></_>
    <_>
      <internalNodes>
        0 -1 7476508 1.3183578848838806e-02</internalNodes>
      <leafValues>
        1.0979781299829483e-01 -7.2064024209976196e-01</leafValues></_>
    <_>
      <internalNodes>
        0 -1 5252223 -4.4203363358974457e-03</internalNodes>
      <leafValues>
        1.4521832764148712e-01 -4.9442809820175171e-01</leafValues></_>
    <_>
      <internalNodes>
        0 -1 6547478 -3.6497280234470963e-05</internalNodes>
      <leafValues>
        -4.5986303687095642e-01 1.9614025950431824e-01</leafValues></_>
    <_>
      <internalNodes>
        0 -1 7656688 -1.7307301459368318e-04</internalNodes>
      <leafValues>
        3.3809429407119751e-01 -2.7497211098670959e-01</leafValues></_>
    <_>
      <internalNodes>
        0 -1 6305285 6.8904372164979577e-04</internalNodes>
      <leafValues>
        1.8722264468669891e-01 -6.1365395784378052e-01</leafValues></_>
    <_>
      <internalNodes>
        0 -1 5235821 -5.8557659387588501e-02</internalNodes>
      <leafValues>
        7.4305933713912964e-01 -1.3093079626560211e-01</leafValues></_>
    <_>
      <internalNodes>
        0 -1 7635640 2.0774006843566895e-03</internalNodes>
      <leafValues>
        -1.4052511751651764e-01 5.5965167284011841e-01</leafValues></_>
    <_>
      <internalNodes>
        0 -1 79268 2.1360439062118530e-01</internalNodes>
      <leafValues>
        -1.0713799297809601e-01 8.5516119003295898e-01</leafValues></_>
    <_>
      <internalNodes>
        0 -1 783842 5.4965843446552753e-04</internalNodes>
      <leafValues>
        -1.6713333129882812e-01 4.9243649840354919e-01</leafValues></_>
    <_>
      <internalNodes>
        0 -1 5549467 -8.9303539425600320e-05</internalNodes>
      <leafValues>
        2.6714187860488892e-01 -3.4408605098724365e-01</leafValues></_>
    <_>
      <internalNodes>
        0 -1 6118589 -6.9117383100092411e-04</internalNodes>
      <leafValues>
        -5.2407151460647583e-01 1.7560268938541412e-01</leafValues></_>
    <_>
      <internalNodes>
        0 -1 5096323 9.9302139133214951e-03</internalNodes>
      <leafValues>
        -4.4789290428161621e-01 2.1615974605083466e-01</leafValues></_>
    <_>
      <internalNodes>
        0 -1 6226757 1.4155771350488067e-04</internalNodes>
      <leafValues>
        2.8523346781730652e-01 -3.3499205112457275e-01</leafValues></_>
    <_>
      <internalNodes>
        0 -1 1012374 -1.9551007077097893e-02</internalNodes>
      <leafValues>
        1.7063407599925995e-01 -5.9418410062789917e-01</leafValues></_>
    <_>
      <internalNodes>
        0 -1 1861086 -1.9211065955460072e-03</internalNodes>
      <leafValues>
        -5.9856355190277100e-01 1.6718052327632904e-01</leafValues></_>
    <_>
      <internalNodes>
        0 -1 3146983 -1.1627102503553033e-03</internalNodes>
      <leafValues>
        -5.7978582382202148e-01 1.3822034001350403e-01</leafValues></_>
    <_>
      <internalNodes>
        0 -1 5462265 2.0479984232224524e-04</internalNodes>
      <leafValues>
        -2.6828497648239136e-01 3.8303503394126892e-01</leafValues></_></weakClassifiers></stage8>
</opencv_storage>
