<?xml version="1.0"?>
<opencv_storage>
<stage2>
  <maxWeakCount>18</maxWeakCount>
  <stageThreshold>-1.0656759738922119e+00</stageThreshold>
  <weakClassifiers>
    <_>
      <internalNodes>
        0 -1 5100489 2.8713732026517391e-03</internalNodes>
      <leafValues>
        -4.6318289637565613e-01 5.0466495752334595e-01</leafValues></_>
    <_>
      <internalNodes>
        0 -1 12659 9.7432410717010498e-01</internalNodes>
      <leafValues>
        -1.9798316061496735e-01 7.2496414184570312e-01</leafValues></_>
    <_>
      <internalNodes>
        0 -1 4366583 4.1084492113441229e-04</internalNodes>
      <leafValues>
        -2.1975106000900269e-01 4.9555128812789917e-01</leafValues></_>
    <_>
      <internalNodes>
        0 -1 2586044 2.2098385670688003e-04</internalNodes>
      <leafValues>
        -6.3597279787063599e-01 1.8434587121009827e-01</leafValues></_>
    <_>
      <internalNodes>
        0 -1 6059825 -2.8264702996239066e-04</internalNodes>
      <leafValues>
        -8.2449847459793091e-01 1.3621361553668976e-01</leafValues></_>
    <_>
      <internalNodes>
        0 -1 5984842 -6.1891369521617889e-02</internalNodes>
      <leafValues>
        -7.0152878761291504e-01 1.4315201342105865e-01</leafValues></_>
    <_>
      <internalNodes>
        0 -1 6556842 5.4308481048792601e-04</internalNodes>
      <leafValues>
        9.7494244575500488e-02 -8.2374966144561768e-01</leafValues></_>
    <_>
      <internalNodes>
        0 -1 7380461 -5.9925178065896034e-03</internalNodes>
      <leafValues>
        -5.3935402631759644e-01 1.9756975769996643e-01</leafValues></_>
    <_>
      <internalNodes>
        0 -1 5257244 2.7513829991221428e-04</internalNodes>
      <leafValues>
        -2.9650723934173584e-01 3.4760034084320068e-01</leafValues></_>
    <_>
      <internalNodes>
        0 -1 5840519 4.4088315917178988e-04</internalNodes>
      <leafValues>
        1.1555385589599609e-01 -7.6081138849258423e-01</leafValues></_>
    <_>
      <internalNodes>
        0 -1 5446787 2.2604099940508604e-03</internalNodes>
      <leafValues>
        1.0597547143697739e-01 -7.5897896289825439e-01</leafValues></_>
    <_>
      <internalNodes>
        0 -1 3547833 1.7328647896647453e-02</internalNodes>
      <leafValues>
        1.0677683353424072e-01 -6.4013570547103882e-01</leafValues></_>
    <_>
      <internalNodes>
        0 -1 1317307 -1.5949176251888275e-01</internalNodes>
      <leafValues>
        -6.2167394161224365e-01 1.8974819779396057e-01</leafValues></_>
    <_>
      <internalNodes>
        0 -1 5688345 -3.2473271130584180e-04</internalNodes>
      <leafValues>
        -5.6965559720993042e-01 1.4597536623477936e-01</leafValues></_>
    <_>
      <internalNodes>
        0 -1 3769812 -2.2905915975570679e-03</internalNodes>
      <leafValues>
        -6.7075181007385254e-01 1.3604055345058441e-01</leafValues></_>
    <_>
      <internalNodes>
        0 -1 5789433 -3.0908096960047260e-05</internalNodes>
      <leafValues>
        3.4835594892501831e-01 -2.9141938686370850e-01</leafValues></_>
    <_>
      <internalNodes>
        0 -1 4116698 9.2302833218127489e-04</internalNodes>
      <leafValues>
        -1.5976868569850922e-01 6.0382223129272461e-01</leafValues></_>
    <_>
      <internalNodes>
        0 -1 6380173 -5.9986236738041043e-04</internalNodes>
      <leafValues>
        -7.9220306873321533e-01 1.3644957542419434e-01</leafValues></_></weakClassifiers></stage2>
</opencv_storage>
