<?xml version="1.0"?>
<opencv_storage>
<stage16>
  <maxWeakCount>19</maxWeakCount>
  <stageThreshold>-1.1072049140930176e+00</stageThreshold>
  <weakClassifiers>
    <_>
      <internalNodes>
        0 -1 5186749 1.5202788636088371e-02</internalNodes>
      <leafValues>
        4.7044533491134644e-01 -4.9589040875434875e-01</leafValues></_>
    <_>
      <internalNodes>
        0 -1 1742231 7.7203178405761719e-01</internalNodes>
      <leafValues>
        -1.7282108962535858e-01 6.0483485460281372e-01</leafValues></_>
    <_>
      <internalNodes>
        0 -1 7196732 1.3786103576421738e-02</internalNodes>
      <leafValues>
        1.2669961154460907e-01 -9.1523259878158569e-01</leafValues></_>
    <_>
      <internalNodes>
        0 -1 3326785 5.1879428792744875e-04</internalNodes>
      <leafValues>
        -1.9809427857398987e-01 5.4921185970306396e-01</leafValues></_>
    <_>
      <internalNodes>
        0 -1 4366227 -3.7691509351134300e-04</internalNodes>
      <leafValues>
        5.9075653553009033e-01 -2.4227914214134216e-01</leafValues></_>
    <_>
      <internalNodes>
        0 -1 2112363 -2.2132474184036255e-01</internalNodes>
      <leafValues>
        -5.7885283231735229e-01 1.6483023762702942e-01</leafValues></_>
    <_>
      <internalNodes>
        0 -1 5630069 -1.5134571585804224e-03</internalNodes>
      <leafValues>
        -5.0099104642868042e-01 1.5916831791400909e-01</leafValues></_>
    <_>
      <internalNodes>
        0 -1 3425888 5.1810495555400848e-02</internalNodes>
      <leafValues>
        -9.6821628510951996e-02 8.1529021263122559e-01</leafValues></_>
    <_>
      <internalNodes>
        0 -1 6335701 5.4848054423928261e-03</internalNodes>
      <leafValues>
        -1.1104983836412430e-01 7.9270017147064209e-01</leafValues></_>
    <_>
      <internalNodes>
        0 -1 6995634 1.1355742812156677e-02</internalNodes>
      <leafValues>
        -9.2751309275627136e-02 7.0302301645278931e-01</leafValues></_>
    <_>
      <internalNodes>
        0 -1 4910207 -7.8479846706613898e-04</internalNodes>
      <leafValues>
        4.4510579109191895e-01 -2.0547799766063690e-01</leafValues></_>
    <_>
      <internalNodes>
        0 -1 2160071 1.8405007431283593e-03</internalNodes>
      <leafValues>
        -1.3750696182250977e-01 6.0360139608383179e-01</leafValues></_>
    <_>
      <internalNodes>
        0 -1 5654964 -1.2687221169471741e-04</internalNodes>
      <leafValues>
        3.5840183496475220e-01 -2.5656867027282715e-01</leafValues></_>
    <_>
      <internalNodes>
        0 -1 5107587 -2.5178662035614252e-03</internalNodes>
      <leafValues>
        -5.5729770660400391e-01 1.8408282101154327e-01</leafValues></_>
    <_>
      <internalNodes>
        0 -1 4436679 -2.6768441312015057e-03</internalNodes>
      <leafValues>
        -8.0532157421112061e-01 1.0159970074892044e-01</leafValues></_>
    <_>
      <internalNodes>
        0 -1 7326210 -2.5289133191108704e-05</internalNodes>
      <leafValues>
        -2.9197925329208374e-01 2.7436265349388123e-01</leafValues></_>
    <_>
      <internalNodes>
        0 -1 6268614 -7.5524847488850355e-04</internalNodes>
      <leafValues>
        8.0649578571319580e-01 -1.0812945663928986e-01</leafValues></_>
    <_>
      <internalNodes>
        0 -1 3865243 -1.5247011557221413e-02</internalNodes>
      <leafValues>
        5.8423846960067749e-01 -1.4701884984970093e-01</leafValues></_>
    <_>
      <internalNodes>
        0 -1 6558953 1.5187275130301714e-04</internalNodes>
      <leafValues>
        2.3725812137126923e-01 -3.8839912414550781e-01</leafValues></_></weakClassifiers></stage16>
</opencv_storage>
