<?xml version="1.0"?>
<opencv_storage>
<stage10>
  <maxWeakCount>22</maxWeakCount>
  <stageThreshold>-9.9329519271850586e-01</stageThreshold>
  <weakClassifiers>
    <_>
      <internalNodes>
        0 -1 90429 2.1769145131111145e-01</internalNodes>
      <leafValues>
        4.2304228991270065e-02 7.2188138961791992e-01</leafValues></_>
    <_>
      <internalNodes>
        0 -1 6445904 -1.6178098740056157e-03</internalNodes>
      <leafValues>
        2.2207939624786377e-01 -4.2757707834243774e-01</leafValues></_>
    <_>
      <internalNodes>
        0 -1 1715738 -1.7660382390022278e-01</internalNodes>
      <leafValues>
        -5.8638209104537964e-01 1.4205127954483032e-01</leafValues></_>
    <_>
      <internalNodes>
        0 -1 5165566 6.9962930865585804e-04</internalNodes>
      <leafValues>
        7.7784389257431030e-02 -8.0164915323257446e-01</leafValues></_>
    <_>
      <internalNodes>
        0 -1 4566190 -2.1787978708744049e-02</internalNodes>
      <leafValues>
        6.4136052131652832e-01 -1.2816455960273743e-01</leafValues></_>
    <_>
      <internalNodes>
        0 -1 7670467 2.5679398095235229e-04</internalNodes>
      <leafValues>
        -1.9810555875301361e-01 4.7560682892799377e-01</leafValues></_>
    <_>
      <internalNodes>
        0 -1 6286849 1.4373061712831259e-03</internalNodes>
      <leafValues>
        1.2585403025150299e-01 -7.9889303445816040e-01</leafValues></_>
    <_>
      <internalNodes>
        0 -1 6793338 1.2708954745903611e-03</internalNodes>
      <leafValues>
        -2.3240506649017334e-01 3.6715734004974365e-01</leafValues></_>
    <_>
      <internalNodes>
        0 -1 4810217 -1.9575851038098335e-03</internalNodes>
      <leafValues>
        1.3437499105930328e-01 -5.6047755479812622e-01</leafValues></_>
    <_>
      <internalNodes>
        0 -1 6481701 4.8292774590663612e-04</internalNodes>
      <leafValues>
        1.8503132462501526e-01 -4.4736605882644653e-01</leafValues></_>
    <_>
      <internalNodes>
        0 -1 6318118 -6.7319947993382812e-04</internalNodes>
      <leafValues>
        -6.1740255355834961e-01 1.0147763043642044e-01</leafValues></_>
    <_>
      <internalNodes>
        0 -1 6445215 -1.1020460806321353e-04</internalNodes>
      <leafValues>
        2.2394506633281708e-01 -3.1644403934478760e-01</leafValues></_>
    <_>
      <internalNodes>
        0 -1 130309 -1.1059977859258652e-01</internalNodes>
      <leafValues>
        6.8471950292587280e-01 -1.1819503456354141e-01</leafValues></_>
    <_>
      <internalNodes>
        0 -1 2195347 4.1136331856250763e-02</internalNodes>
      <leafValues>
        -1.8459147214889526e-01 3.9789959788322449e-01</leafValues></_>
    <_>
      <internalNodes>
        0 -1 5286135 1.4671748504042625e-03</internalNodes>
      <leafValues>
        -1.9941321015357971e-01 4.2938452959060669e-01</leafValues></_>
    <_>
      <internalNodes>
        0 -1 6030230 2.4505830369889736e-03</internalNodes>
      <leafValues>
        1.0882373899221420e-01 -7.5608813762664795e-01</leafValues></_>
    <_>
      <internalNodes>
        0 -1 661446 1.8852251768112183e-01</internalNodes>
      <leafValues>
        1.0889434069395065e-01 -6.3355660438537598e-01</leafValues></_>
    <_>
      <internalNodes>
        0 -1 5081604 -3.2257400453090668e-03</internalNodes>
      <leafValues>
        4.0812945365905762e-01 -1.8918459117412567e-01</leafValues></_>
    <_>
      <internalNodes>
        0 -1 2865966 8.7132319808006287e-02</internalNodes>
      <leafValues>
        -8.8124968111515045e-02 8.5099542140960693e-01</leafValues></_>
    <_>
      <internalNodes>
        0 -1 1911113 -5.0443215295672417e-03</internalNodes>
      <leafValues>
        -5.5054676532745361e-01 1.5657693147659302e-01</leafValues></_>
    <_>
      <internalNodes>
        0 -1 5337484 -3.9066647877916694e-04</internalNodes>
      <leafValues>
        -6.8972265720367432e-01 8.4536351263523102e-02</leafValues></_>
    <_>
      <internalNodes>
        0 -1 156824 1.2124534987378865e-04</internalNodes>
      <leafValues>
        -2.3926246166229248e-01 3.2436144351959229e-01</leafValues></_></weakClassifiers></stage10>
</opencv_storage>
