<?xml version="1.0"?>
<opencv_storage>
<stage7>
  <maxWeakCount>16</maxWeakCount>
  <stageThreshold>-9.6777194738388062e-01</stageThreshold>
  <weakClassifiers>
    <_>
      <internalNodes>
        0 -1 333135 9.2807608842849731e-01</internalNodes>
      <leafValues>
        -3.8240917492657900e-03 7.2924184799194336e-01</leafValues></_>
    <_>
      <internalNodes>
        0 -1 2858991 -2.2939760982990265e-01</internalNodes>
      <leafValues>
        -9.0057396888732910e-01 1.9416649639606476e-01</leafValues></_>
    <_>
      <internalNodes>
        0 -1 6033578 2.7212379500269890e-03</internalNodes>
      <leafValues>
        1.1446166038513184e-01 -6.7079395055770874e-01</leafValues></_>
    <_>
      <internalNodes>
        0 -1 6759650 -3.1084718182682991e-02</internalNodes>
      <leafValues>
        5.8666718006134033e-01 -1.9108322262763977e-01</leafValues></_>
    <_>
      <internalNodes>
        0 -1 6884374 6.0919700190424919e-03</internalNodes>
      <leafValues>
        -3.2601955533027649e-01 4.5284625887870789e-01</leafValues></_>
    <_>
      <internalNodes>
        0 -1 4889899 -1.6827582148835063e-03</internalNodes>
      <leafValues>
        -8.1726777553558350e-01 1.9829261302947998e-01</leafValues></_>
    <_>
      <internalNodes>
        0 -1 89175 1.1774282902479172e-02</internalNodes>
      <leafValues>
        -2.0382210612297058e-01 6.3635879755020142e-01</leafValues></_>
    <_>
      <internalNodes>
        0 -1 345583 -4.2900249361991882e-02</internalNodes>
      <leafValues>
        6.0590809583663940e-01 -1.9565995037555695e-01</leafValues></_>
    <_>
      <internalNodes>
        0 -1 5084644 2.5293612852692604e-02</internalNodes>
      <leafValues>
        -9.4713874161243439e-02 8.3522897958755493e-01</leafValues></_>
    <_>
      <internalNodes>
        0 -1 4221142 5.2636419241025578e-06</internalNodes>
      <leafValues>
        3.4141090512275696e-01 -2.9880490899085999e-01</leafValues></_>
    <_>
      <internalNodes>
        0 -1 5829550 2.3035504855215549e-03</internalNodes>
      <leafValues>
        2.8354856371879578e-01 -3.5894414782524109e-01</leafValues></_>
    <_>
      <internalNodes>
        0 -1 4175986 -1.2764537241309881e-03</internalNodes>
      <leafValues>
        -8.7202042341232300e-01 1.0573443025350571e-01</leafValues></_>
    <_>
      <internalNodes>
        0 -1 2475592 5.4781185463070869e-04</internalNodes>
      <leafValues>
        -2.1107216179370880e-01 5.1706492900848389e-01</leafValues></_>
    <_>
      <internalNodes>
        0 -1 2807650 7.3230432462878525e-05</internalNodes>
      <leafValues>
        -1.8190848827362061e-01 4.9547702074050903e-01</leafValues></_>
    <_>
      <internalNodes>
        0 -1 302412 -3.7192443013191223e-01</internalNodes>
      <leafValues>
        -8.0505055189132690e-01 1.3071635365486145e-01</leafValues></_>
    <_>
      <internalNodes>
        0 -1 85028 -2.3116027936339378e-02</internalNodes>
      <leafValues>
        2.4521560966968536e-01 -4.2415675520896912e-01</leafValues></_></weakClassifiers></stage7>
</opencv_storage>
